# LAMMPS SNAP coefficients for W

1 205
W 0.5 1
0.000000000000 # B[0, 0, 0, 0]
0.031727383212 # B[1, 0, 0, 0]
-0.017876543382 # B[2, 1, 0, 1]
0.180818583100 # B[3, 1, 1, 2]
-0.034370273590 # B[4, 2, 0, 2]
-0.027182103731 # B[5, 2, 1, 3]
-0.098916452628 # B[6, 2, 2, 2]
-0.155871394516 # B[7, 2, 2, 4]
-0.058303820848 # B[8, 3, 0, 3]
-0.118095925993 # B[9, 3, 1, 4]
-0.236447835668 # B[10, 3, 2, 3]
-0.260735745124 # B[11, 3, 2, 5]
-0.191103672366 # B[12, 3, 3, 4]
-0.050615881076 # B[13, 3, 3, 6]
-0.051814278001 # B[14, 4, 0, 4]
-0.116365066004 # B[15, 4, 1, 5]
-0.162008711238 # B[16, 4, 2, 4]
-0.098551214203 # B[17, 4, 2, 6]
-0.241628183919 # B[18, 4, 3, 5]
-0.040861383629 # B[19, 4, 3, 7]
-0.051647463719 # B[20, 4, 4, 4]
-0.052502935104 # B[21, 4, 4, 6]
-0.002614558375 # B[22, 4, 4, 8]
-0.052388872611 # B[23, 5, 0, 5]
-0.046192280914 # B[24, 5, 1, 6]
-0.067851911472 # B[25, 5, 2, 5]
-0.063156824904 # B[26, 5, 2, 7]
-0.119720103767 # B[27, 5, 3, 6]
-0.022347416790 # B[28, 5, 3, 8]
-0.066528195797 # B[29, 5, 4, 5]
-0.047190633331 # B[30, 5, 4, 7]
-0.001557984153 # B[31, 5, 4, 9]
-0.013422118039 # B[32, 5, 5, 6]
0.003821680788 # B[33, 5, 5, 8]
0.000116001869 # B[34, 5, 5, 10]
-0.038920746214 # B[35, 6, 0, 6]
-0.038754085775 # B[36, 6, 1, 7]
-0.042697923189 # B[37, 6, 2, 6]
-0.046188784898 # B[38, 6, 2, 8]
-0.069983727584 # B[39, 6, 3, 7]
-0.009238407565 # B[40, 6, 3, 9]
-0.003980837122 # B[41, 6, 4, 6]
-0.013613705195 # B[42, 6, 4, 8]
-0.014368779096 # B[43, 6, 4, 10]
0.028206817666 # B[44, 6, 5, 7]
0.013361664504 # B[45, 6, 5, 9]
0.000000000000 # B[46, 6, 5, 11] !!!
0.002598447666 # B[46, 6, 6, 6]
0.013608069580 # B[47, 6, 6, 8]
-0.004599967002 # B[48, 6, 6, 10]
0.000000000000 # B[50, 6, 6, 12] !!!
-0.031628519599 # B[49, 7, 0, 7]
-0.005434799214 # B[50, 7, 1, 8]
-0.011052723835 # B[51, 7, 2, 7]
-0.017650235890 # B[52, 7, 2, 9]
-0.030405733161 # B[53, 7, 3, 8]
-0.002437740791 # B[54, 7, 3, 10]
-0.010666883645 # B[55, 7, 4, 7]
-0.007432207191 # B[56, 7, 4, 9]
0.000000000000 # B[59, 7, 4, 11] !!!
0.048623289628 # B[57, 7, 5, 8]
-0.005455670779 # B[58, 7, 5, 10]
0.000000000000 # B[62, 7, 5, 12] !!!
0.022808472842 # B[59, 7, 6, 7]
0.011172895201 # B[60, 7, 6, 9]
0.000000000000 # B[65, 7, 6, 11] !!!
0.000000000000 # B[66, 7, 6, 13] !!!
0.029427798787 # B[61, 7, 7, 8]
0.006943778126 # B[62, 7, 7, 10]
0.000000000000 # B[68, 7, 7, 12] !!!
0.000000000000 # B[70, 7, 7, 14] !!!
-0.023178396833 # B[63, 8, 0, 8]
 0.004160908169 # B[64, 8, 1, 9]
-0.008476390683 # B[65, 8, 2, 8]
-0.022810477137 # B[66, 8, 2, 10]
-0.018167915459 # B[67, 8, 3, 9]
0.000000000000 # B[74, 8, 3, 11] !!!
0.003039185382 # B[68, 8, 4, 8]
-0.005387604700 # B[69, 8, 4, 10]
0.000000000000 # B[77, 8, 4, 12] !!!
0.017194249248 # B[70, 8, 5, 9]
0.000000000000 # B[79, 8, 5, 11] !!!
0.000000000000 # B[82, 8, 5, 13] !!!
0.019453883775 # B[71, 8, 6, 8]
0.000118509332 # B[72, 8, 6, 10]
0.000000000000 # B[82, 8, 6, 12] !!!
0.000000000000 # B[86, 8, 6, 14] !!!
0.021936521969 # B[73, 8, 7, 9]
0.000000000000 # B[84, 8, 7, 11] !!!
0.000000000000 # B[89, 8, 7, 13] !!!
0.012236529083 # B[74, 8, 8, 8]
0.006502458867 # B[75, 8, 8, 10]
0.000000000000 # B[87, 8, 8, 12] !!!
0.000000000000 # B[93, 8, 8, 14] !!!
-0.007632690467 # B[76, 9, 0, 9]
-0.005740873112 # B[77, 9, 1, 10]
 0.004419554086 # B[78, 9, 2, 9]
0.000000000000 # B[91, 9, 2, 11] !!!
-0.004815942864 # B[79, 9, 3, 10]
0.000000000000 # B[93, 9, 3, 12] !!!
-0.002444650899 # B[80, 9, 4, 9]
0.000000000000 # B[95, 9, 4, 11] !!!
0.000000000000 # B[102, 9, 4, 13] !!!
0.004519967823 # B[81, 9, 5, 10]
0.000000000000 # B[97, 9, 5, 12] !!!
0.000000000000 # B[105, 9, 5, 14] !!!
0.002186962372 # B[82, 9, 6, 9]
0.000000000000 # B[99, 9, 6, 11] !!!
0.000000000000 # B[108, 9, 6, 13] !!!
0.007660568189 # B[83, 9, 7, 10]
0.000000000000 # B[101, 9, 7, 12] !!!
0.000000000000 # B[111, 9, 7, 14] !!!
0.004451173570 # B[84, 9, 8, 9]
0.000000000000 # B[103, 9, 8, 11] !!!
0.000000000000 # B[114, 9, 8, 13] !!!
0.002411148230 # B[85, 9, 9, 10]
0.000000000000 # B[105, 9, 9, 12] !!!
0.000000000000 # B[117, 9, 9, 14] !!!
-0.001756417987 # B[86, 10, 0, 10]
0.000000000000 # B[107, 10, 1, 11] !!!
0.003388483744 # B[87, 10, 2, 10]
0.000000000000 # B[109, 10, 2, 12] !!!
0.000000000000 # B[110, 10, 3, 11] !!!
0.000000000000 # B[123, 10, 3, 13] !!!
0.002961267479 # B[88, 10, 4, 10]
0.000000000000 # B[112, 10, 4, 12] !!!
0.000000000000 # B[126, 10, 4, 14] !!!
0.000000000000 # B[113, 10, 5, 11] !!!
0.000000000000 # B[128, 10, 5, 13] !!!
0.003257804369 # B[89, 10, 6, 10]
0.000000000000 # B[115, 10, 6, 12] !!!
0.000000000000 # B[131, 10, 6, 14] !!!
0.000000000000 # B[132, 10, 7, 11] !!!
0.000000000000 # B[133, 10, 7, 13] !!!
0.004658821284 # B[90, 10, 8, 10]
0.000000000000 # B[118, 10, 8, 12] !!!
0.000000000000 # B[136, 10, 8, 14] !!!
0.000000000000 # B[137, 10, 9, 11] !!!
0.000000000000 # B[138, 10, 9, 13] !!!
0.000217058836 # B[91, 10, 10, 10]
0.000000000000 # B[121, 10, 10, 12] !!!
0.000000000000 # B[141, 10, 10, 14] !!!
0.000000000000 # B[142, 11, 0, 11] !!!
0.000000000000 # B[143, 11, 1, 12] !!!
0.000000000000 # B[144, 11, 2, 11] !!!
0.000000000000 # B[145, 11, 2, 13] !!!
0.000000000000 # B[146, 11, 3, 12] !!!
0.000000000000 # B[147, 11, 3, 14] !!!
0.000000000000 # B[148, 11, 4, 11] !!!
0.000000000000 # B[149, 11, 4, 13] !!!
0.000000000000 # B[150, 11, 5, 12] !!!
0.000000000000 # B[151, 11, 5, 14] !!!
0.000000000000 # B[152, 11, 6, 11] !!!
0.000000000000 # B[153, 11, 6, 13] !!!
0.000000000000 # B[154, 11, 7, 12] !!!
0.000000000000 # B[155, 11, 7, 14] !!!
0.000000000000 # B[156, 11, 8, 11] !!!
0.000000000000 # B[157, 11, 8, 13] !!!
0.000000000000 # B[158, 11, 9, 12] !!!
0.000000000000 # B[159, 11, 9, 14] !!!
0.000000000000 # B[160, 11, 10, 11] !!!
0.000000000000 # B[161, 11, 10, 13] !!!
0.000000000000 # B[162, 11, 11, 12] !!!
0.000000000000 # B[163, 11, 11, 14] !!!
0.000000000000 # B[164, 12, 0, 12] !!!
0.000000000000 # B[165, 12, 1, 13] !!!
0.000000000000 # B[166, 12, 2, 12] !!!
0.000000000000 # B[167, 12, 2, 14] !!!
0.000000000000 # B[168, 12, 3, 13] !!!
0.000000000000 # B[169, 12, 4, 12] !!!
0.000000000000 # B[170, 12, 4, 14] !!!
0.000000000000 # B[171, 12, 5, 13] !!!
0.000000000000 # B[172, 12, 6, 12] !!!
0.000000000000 # B[173, 12, 6, 14] !!!
0.000000000000 # B[174, 12, 7, 13] !!!
0.000000000000 # B[175, 12, 8, 12] !!!
0.000000000000 # B[176, 12, 8, 14] !!!
0.000000000000 # B[177, 12, 9, 13] !!!
0.000000000000 # B[178, 12, 10, 12] !!!
0.000000000000 # B[179, 12, 10, 14] !!!
0.000000000000 # B[180, 12, 11, 13] !!!
0.000000000000 # B[181, 12, 12, 12] !!!
0.000000000000 # B[182, 12, 12, 14] !!!
0.000000000000 # B[183, 13, 0, 13] !!!
0.000000000000 # B[184, 13, 1, 14] !!!
0.000000000000 # B[185, 13, 2, 13] !!!
0.000000000000 # B[186, 13, 3, 14] !!!
0.000000000000 # B[187, 13, 4, 13] !!!
0.000000000000 # B[188, 13, 5, 14] !!!
0.000000000000 # B[189, 13, 6, 13] !!!
0.000000000000 # B[190, 13, 7, 14] !!!
0.000000000000 # B[191, 13, 8, 13] !!!
0.000000000000 # B[192, 13, 9, 14] !!!
0.000000000000 # B[193, 13, 10, 13] !!!
0.000000000000 # B[194, 13, 11, 14] !!!
0.000000000000 # B[195, 13, 12, 13] !!!
0.000000000000 # B[196, 13, 13, 14] !!!
0.000000000000 # B[197, 14, 0, 14] !!!
0.000000000000 # B[198, 14, 2, 14] !!!
0.000000000000 # B[199, 14, 4, 14] !!!
0.000000000000 # B[200, 14, 6, 14] !!!
0.000000000000 # B[201, 14, 8, 14] !!!
0.000000000000 # B[202, 14, 10, 14] !!!
0.000000000000 # B[203, 14, 12, 14] !!!
0.000000000000 # B[204, 14, 14, 14] !!!
